34 128
34 0.111527 0.010818 -0.111324 0.090657 -0.009828 -0.246182 -0.247582 -0.057282 -0.088957 -0.118014 0.031413 -0.166641 0.065191 0.280507 -0.053058 0.130933 -0.124728 -0.080777 -0.012812 -0.149842 0.048482 0.067161 -0.099153 -0.050188 -0.176800 0.026556 0.098650 0.037639 -0.108103 -0.222695 -0.009775 0.056698 0.026995 0.077332 0.203758 -0.275324 0.117716 -0.049555 -0.035009 0.173719 -0.119361 -0.132583 -0.067843 -0.141872 -0.037015 0.057717 -0.095443 0.143430 0.088934 0.066674 0.154162 -0.044392 0.043482 -0.101506 -0.122495 0.129365 -0.032099 -0.080593 0.093814 -0.085734 -0.037640 0.034208 0.108078 -0.077829 -0.066146 0.038774 0.067653 -0.144416 0.050384 -0.036534 -0.135404 0.008050 -0.216630 -0.060912 -0.105120 -0.035677 0.204489 0.008075 -0.090087 0.113735 0.023757 0.094701 -0.134379 0.047248 0.146272 0.059103 -0.076328 -0.150213 -0.192466 -0.150929 -0.169396 0.053793 0.044617 0.073560 -0.092740 0.059194 -0.051461 0.089958 0.081434 0.178802 -0.035269 -0.173608 0.080918 -0.169752 0.049477 -0.056399 0.173321 -0.049950 0.139467 0.013519 -0.178621 -0.059415 0.189662 0.019976 -0.128907 0.032343 0.102274 0.061321 0.165248 -0.140888 -0.004653 -0.019388 0.014388 -0.040914 0.235797 -0.105163 0.045631 0.171583
1 0.104708 -0.055743 0.056095 -0.189741 -0.114841 -0.131305 0.053681 -0.012613 -0.071304 0.109586 -0.016247 0.089760 -0.105824 0.064745 0.136346 0.113286 0.226870 0.040655 0.016500 -0.022767 0.104331 -0.215440 0.041660 -0.122528 0.008200 -0.005045 0.086200 -0.041288 -0.012941 0.044814 -0.147985 -0.138194 0.031608 -0.009955 -0.137332 0.077121 -0.050153 -0.011931 0.129365 0.074075 -0.138878 0.167445 0.147837 0.042982 -0.117504 0.031676 -0.039051 -0.032064 -0.075337 -0.036497 -0.255758 0.023544 0.007691 0.024218 -0.021614 0.038753 0.052343 0.160673 -0.035580 0.043370 -0.027429 -0.018021 0.025038 -0.033065 0.025846 0.073585 0.051412 0.123060 -0.069804 0.070499 -0.093037 -0.127387 0.178574 0.118220 -0.019588 0.118914 -0.019644 -0.217971 0.025440 0.129639 -0.080098 0.078734 -0.206536 0.135180 0.048208 -0.102311 0.031271 0.031182 -0.052208 0.026546 0.163451 -0.064492 -0.044986 0.037871 -0.090651 0.033441 -0.250160 -0.113630 0.125978 -0.098964 0.031829 -0.041894 0.109615 0.040104 -0.039671 0.053043 -0.019578 -0.146951 -0.107572 -0.067010 0.073968 0.014962 0.056667 0.001030 0.004229 -0.054813 0.119722 0.060577 0.084018 0.209281 -0.082851 0.034465 0.038535 0.047689 0.014235 0.217614 -0.004269 -0.046139
33 0.150904 0.025169 -0.056120 0.072426 -0.033987 -0.174790 -0.078044 -0.060817 -0.034776 -0.107591 0.060753 -0.136937 0.071625 0.244230 -0.034412 0.092062 0.083876 -0.065044 0.031473 0.013771 -0.057256 -0.111523 0.042757 -0.103425 -0.192468 -0.075059 -0.036131 0.070801 0.026313 -0.065129 -0.007567 -0.035024 0.016710 -0.084344 0.195187 -0.267087 0.080397 -0.046309 0.069258 -0.051162 -0.039542 -0.070792 0.026685 -0.079347 -0.059719 0.021588 -0.083318 0.113344 0.034119 0.080716 0.177257 0.039192 -0.004462 -0.061833 -0.273133 0.135614 -0.027847 -0.026780 0.194925 -0.079657 -0.035460 0.004699 0.154019 0.132607 -0.030152 -0.030328 0.059580 -0.228362 -0.031905 -0.036191 -0.040969 0.113761 -0.077541 -0.028187 -0.025462 -0.080232 0.076015 0.029692 -0.150070 0.018701 0.005255 0.063870 -0.163460 -0.036526 0.135182 0.080742 -0.066117 -0.154242 -0.124906 -0.202577 -0.073774 -0.046423 0.075184 0.102748 -0.122883 0.055691 0.132404 0.129498 -0.044874 0.074901 -0.014344 -0.120539 0.008003 -0.005877 0.000209 -0.091442 0.156904 -0.049594 0.144472 -0.038038 -0.236275 -0.022072 0.018291 -0.071326 -0.145701 -0.075468 -0.019918 -0.064916 0.062421 -0.062259 0.102521 -0.122381 0.079788 -0.013559 0.103079 -0.234532 -0.115241 0.100958
3 -0.076539 -0.145479 -0.032627 0.036556 0.063804 -0.023613 -0.134642 0.007113 0.216734 0.115093 -0.125238 -0.240998 -0.035799 -0.000744 -0.273945 0.035028 -0.074163 0.166773 0.045703 -0.040594 0.071149 0.044951 -0.142340 0.188608 0.109759 0.090823 0.129565 -0.058553 -0.115424 -0.216985 -0.062060 0.205741 -0.031412 0.179852 0.158012 0.082527 -0.074272 0.043576 -0.073810 0.006960 -0.037299 -0.234761 -0.008414 -0.101527 -0.078841 -0.074350 -0.005563 0.181264 0.100130 -0.088741 0.087129 -0.146571 0.085023 -0.002051 0.226643 -0.028892 -0.072705 0.004002 -0.252774 -0.188410 -0.028290 -0.096627 -0.159846 0.014399 -0.219482 0.040623 0.131484 -0.039443 -0.021603 0.013899 -0.087343 -0.044946 -0.224157 -0.060268 0.124872 0.184300 0.201668 -0.091286 0.207324 0.190003 -0.075315 0.051402 -0.014437 -0.009964 0.061434 -0.113956 0.196293 -0.014985 0.045362 0.056826 -0.102279 0.204537 -0.091615 -0.003464 0.137642 0.050633 -0.286126 -0.074114 0.142422 0.223637 -0.057886 -0.032062 -0.067769 -0.050842 0.190314 -0.098482 0.131325 -0.038960 -0.229651 -0.142735 0.244105 0.025575 0.101232 0.181593 0.167967 0.001800 0.042893 0.157301 -0.139000 -0.128934 -0.080977 -0.027692 -0.023366 0.028220 0.007896 0.174431 -0.070817 -0.052415
2 -0.021045 -0.193453 -0.073801 -0.001389 -0.161509 0.023208 -0.223432 -0.096490 -0.113672 0.145407 -0.010940 -0.058008 -0.075831 0.204379 0.129054 0.312921 0.154463 0.266604 0.129991 -0.113265 0.112046 0.101766 0.200561 -0.058520 -0.115892 0.031184 0.235888 0.026490 0.021714 -0.305200 0.158921 -0.003158 -0.183757 0.017671 0.125083 -0.002748 -0.144583 0.136400 0.185054 0.153521 -0.153476 0.092159 -0.060316 -0.281994 0.030164 -0.173697 -0.160332 -0.045896 -0.009882 -0.175362 0.147711 0.159703 0.230675 0.108044 0.053403 0.121851 0.053402 0.108315 -0.136851 -0.010478 0.109961 -0.074191 0.082045 0.171992 -0.244275 -0.049741 -0.032433 0.289872 -0.140174 0.251740 -0.193255 -0.068926 -0.199865 -0.167392 0.234848 0.153952 0.013741 -0.330785 0.073612 -0.068829 -0.313685 -0.201313 -0.230823 0.076458 0.245710 -0.046242 0.144118 -0.057209 0.159990 0.165542 -0.069634 0.154654 -0.159339 0.139188 0.104080 -0.064298 -0.371395 -0.164409 0.279335 0.160244 -0.331855 0.121385 -0.051905 0.124994 -0.027569 -0.052067 -0.102214 -0.114289 -0.144383 -0.042265 0.128344 -0.054192 0.142267 0.111119 0.043389 0.104305 0.043094 0.038972 0.325648 -0.156541 -0.052330 -0.042954 0.132392 -0.168656 0.019906 0.269209 -0.011417 0.057659
4 0.039937 -0.019527 0.132118 -0.277865 -0.056080 0.082298 0.066254 -0.058674 0.129105 0.226392 -0.067997 0.180679 -0.109212 0.169580 -0.173923 0.119707 0.114703 0.089672 0.127905 0.002021 0.033913 -0.085043 0.033397 -0.060251 0.247846 0.014534 0.079953 -0.056920 -0.093914 0.105275 0.018117 -0.052515 0.071632 -0.040142 0.097151 0.251858 -0.186632 0.177429 0.106485 -0.123936 0.106809 -0.130004 0.003897 -0.269593 -0.079851 -0.237831 0.036698 0.002868 0.064857 -0.211426 -0.044417 0.076682 0.038338 -0.003170 0.119096 -0.043737 0.166678 -0.132792 -0.230783 0.071532 -0.076928 0.067777 0.004909 0.044672 -0.318132 -0.197527 0.050605 0.038825 -0.120390 0.192931 -0.136078 0.064347 -0.150224 -0.078824 0.289994 -0.034725 0.201188 -0.307023 0.342225 0.095233 -0.087322 -0.006486 -0.163052 0.134230 0.068429 -0.100928 0.248052 0.205767 0.284609 0.152212 0.002500 0.180184 -0.306673 0.042674 -0.096558 0.133596 -0.149502 -0.131531 0.051701 0.295187 -0.238358 -0.038361 -0.073257 0.165288 -0.030717 0.091594 -0.081990 -0.026026 -0.316137 -0.079923 0.220973 -0.037531 0.117035 0.008470 0.092645 0.073662 0.142557 -0.041770 0.011129 -0.167975 -0.051149 -0.007017 0.125648 -0.203501 -0.002762 0.394228 0.130509 -0.028629
32 -0.006809 0.088130 -0.173688 0.205012 0.181008 0.184683 -0.116546 -0.266483 0.081787 0.001646 0.321668 -0.104356 -0.148284 -0.082839 0.211678 -0.092731 -0.194732 -0.063686 0.128097 0.082748 -0.034698 -0.217319 -0.160350 0.082047 0.123156 0.041574 0.171098 0.146648 -0.124378 -0.168731 -0.053191 0.183303 0.176261 0.163319 -0.243810 -0.086889 0.001922 -0.325461 -0.205260 0.149530 0.066175 0.029132 -0.136927 0.003542 -0.065308 0.181857 -0.163588 -0.019156 0.153808 0.156481 0.026923 -0.085309 -0.028962 0.198304 0.146210 -0.058724 -0.169901 0.127543 -0.034183 -0.242212 0.184562 -0.128652 -0.317934 -0.161117 0.118409 0.136433 -0.153092 0.043122 -0.052262 0.040385 -0.208889 -0.023394 0.015501 0.049509 -0.006356 -0.022394 0.136403 0.018091 -0.054828 -0.218570 0.008531 0.221911 -0.017589 0.098525 -0.006596 0.104793 -0.102667 0.092478 -0.052277 0.096640 0.029146 -0.006265 -0.126130 -0.262798 0.093203 -0.039881 -0.194531 -0.024330 0.110392 -0.131236 0.002219 -0.078623 0.022508 0.103764 0.053409 -0.184626 -0.020139 -0.073638 0.194479 0.064276 -0.035029 0.086044 -0.105776 -0.102496 0.099612 -0.139821 -0.046699 0.167190 0.214204 0.035820 -0.009845 -0.098247 0.334452 0.081351 0.194256 -0.042996 0.042185 -0.011480
24 -0.023763 0.201948 -0.121611 0.154514 -0.018238 -0.251325 -0.242997 -0.265242 0.031911 -0.197811 0.294935 -0.035102 0.186815 0.219615 -0.272494 -0.050835 -0.293155 -0.132872 -0.015613 0.020970 0.017905 0.062784 -0.255865 0.381966 -0.052253 -0.009892 -0.098814 0.111602 -0.180332 -0.018381 0.224273 0.051587 0.113582 -0.055224 0.114290 -0.172318 0.081340 -0.081210 -0.311867 0.033944 0.298128 -0.043804 -0.139263 -0.058453 -0.136528 -0.151182 0.073343 0.130663 0.099060 -0.067933 0.028513 0.012506 -0.110469 -0.208959 -0.015275 -0.155874 -0.080915 -0.119842 -0.013723 0.023646 -0.065889 0.101418 -0.001109 -0.116537 -0.109795 0.095167 0.116818 0.055715 0.033704 0.028356 -0.033083 0.177350 -0.082141 -0.037970 -0.022794 -0.161166 0.133331 0.006663 0.035917 -0.025193 0.237941 0.196125 0.061998 0.012988 -0.007544 0.143316 -0.025585 0.167795 -0.043870 0.111846 -0.006021 -0.022667 -0.019027 -0.104587 -0.171935 0.048280 0.136610 0.081834 0.004309 0.091550 0.001952 0.015488 0.019212 0.029629 0.181478 -0.103536 -0.108144 0.272191 0.003602 0.265238 -0.141873 -0.084102 0.172115 0.091961 -0.139852 0.068803 0.042243 0.096287 0.034812 -0.177641 -0.036922 0.006921 -0.120878 -0.043846 0.141205 0.017692 0.119891 0.224421
14 0.050183 -0.165992 0.046789 0.081268 0.009991 0.140436 -0.052718 0.062213 0.020360 0.093138 -0.026523 0.002808 0.025204 0.060233 -0.047348 0.126327 0.048613 0.094681 0.121438 -0.032859 -0.147786 0.006991 0.191065 0.123744 -0.000930 -0.047615 0.089147 0.100709 -0.021032 -0.093251 0.193692 0.047029 -0.152236 -0.074154 0.154152 0.194759 -0.102773 0.104600 0.099794 -0.178338 0.042473 -0.023028 0.068507 -0.127658 0.033366 -0.210411 -0.019343 0.071130 -0.024704 -0.100997 0.145408 0.057049 0.049792 -0.037138 0.158638 0.102754 0.080552 0.137051 -0.047018 0.079446 0.004385 -0.079795 -0.061319 0.181601 -0.076910 0.040666 0.059185 0.154660 -0.115693 0.041357 -0.094047 0.170277 -0.023370 -0.153162 0.117889 0.075895 -0.107183 -0.056862 0.049911 -0.070003 -0.119970 -0.034311 -0.057547 -0.056049 0.202087 0.100058 0.043374 -0.097970 0.075033 0.101150 -0.010198 0.000609 -0.140171 -0.108399 0.010260 0.098242 -0.028843 0.019201 -0.026458 0.157524 -0.191626 0.099276 -0.208468 0.182337 -0.075511 -0.197924 0.069681 -0.059881 -0.234818 -0.073872 0.231055 -0.030745 -0.021837 -0.009306 0.061259 0.010990 -0.174237 -0.073622 -0.088844 -0.084390 0.196554 0.008041 -0.013366 -0.019228 -0.100420 0.071139 -0.036496 -0.023848
9 0.004436 0.158298 -0.088093 0.125081 0.074681 0.048419 -0.248563 -0.004348 -0.015553 -0.055470 0.133226 -0.218194 -0.051313 0.013975 0.023196 -0.078161 -0.205243 -0.108276 -0.020598 -0.047855 -0.130778 -0.059876 -0.159418 0.041544 -0.006522 0.112744 0.082864 0.133120 -0.014284 -0.169884 -0.011147 -0.031849 0.068284 0.106186 -0.006562 0.004126 -0.034196 -0.006449 0.041047 0.035494 -0.012641 -0.055716 -0.051944 -0.161048 -0.096979 -0.015358 0.002679 -0.002188 0.182724 0.056652 -0.055004 -0.063546 -0.152637 0.167080 -0.071054 0.000344 -0.070336 -0.074961 0.099190 -0.141829 0.078633 -0.070484 -0.051342 -0.056344 0.206939 -0.038961 -0.039954 -0.113607 0.017799 -0.043617 0.004971 0.116556 0.082388 -0.144930 -0.076335 -0.067345 0.122128 -0.042960 -0.031497 -0.014032 -0.036271 -0.052063 0.126500 -0.008236 0.084799 0.165594 -0.001441 0.074184 0.048772 -0.078300 0.018382 0.025312 -0.105563 -0.128094 -0.144270 -0.034971 0.084927 0.102029 -0.085185 -0.128627 -0.066992 -0.105790 -0.027857 0.258193 0.049032 -0.108053 0.159142 -0.022775 0.139448 0.078756 0.099356 0.047842 -0.169423 -0.069281 -0.063068 -0.024325 0.015327 -0.097657 0.086288 -0.007991 0.080435 -0.131158 0.167790 0.052038 0.022449 -0.125248 -0.059112 0.027003
6 0.148573 0.119799 0.165554 -0.164545 -0.188223 -0.160628 0.188067 0.165045 -0.164966 0.287453 -0.123979 0.136778 -0.221649 -0.096012 0.364257 -0.034819 0.243303 -0.093574 0.026544 -0.142938 -0.002374 -0.202366 -0.048719 -0.243292 0.022979 0.126158 -0.032282 0.039485 -0.078475 0.244340 -0.326085 -0.195668 -0.030863 0.066810 -0.286632 0.204959 -0.141731 0.350758 0.256752 0.262489 -0.326347 0.341990 0.279213 -0.049811 -0.121257 0.144872 -0.076678 -0.289032 -0.061586 -0.035114 -0.536371 0.058682 -0.063213 0.072082 -0.100675 0.139555 0.215856 -0.127442 0.226459 0.352842 -0.087795 -0.095017 0.355411 -0.078043 0.218991 -0.188009 0.086375 0.153578 0.067360 -0.078520 0.072563 -0.098645 0.372973 -0.099875 -0.126251 0.113741 -0.092384 -0.289814 0.252279 0.375501 -0.103638 -0.259766 -0.026568 0.286324 -0.063552 -0.149101 0.124253 0.158400 -0.103524 0.083263 0.190168 -0.059762 -0.078284 0.023192 -0.300311 -0.047263 -0.271462 0.046531 -0.082789 -0.283410 -0.015865 -0.075393 0.112209 0.181583 -0.271246 0.121540 0.051497 -0.278857 -0.299149 -0.140102 0.279268 0.166858 -0.107411 -0.171216 -0.093148 0.012870 0.285252 -0.055562 0.042909 0.366349 0.068477 0.023641 0.053748 0.044704 -0.186928 0.273910 0.158430 -0.284783
7 0.093076 0.105297 0.184876 -0.258654 -0.132397 -0.066315 0.199900 0.111669 -0.205928 0.258981 0.012680 0.181068 -0.283881 -0.079666 0.406364 -0.067301 0.359717 -0.019851 0.074261 0.014207 0.064666 -0.326033 -0.007015 -0.222862 -0.035978 0.112899 -0.020214 0.012816 0.074703 0.260949 -0.306858 -0.208080 -0.104378 0.030488 -0.353126 0.140026 -0.090285 0.279575 0.307548 0.166238 -0.221354 0.509253 0.362336 -0.023877 -0.125783 0.135890 0.030321 -0.304653 -0.162366 -0.016811 -0.533507 0.014886 -0.171383 0.087698 -0.245790 0.003631 -0.042541 -0.080681 0.270384 0.211139 -0.065080 -0.081286 0.415987 0.011995 0.277048 -0.143158 0.066739 0.152355 -0.021986 -0.072374 0.066545 -0.063569 0.416813 -0.086427 -0.102028 0.100731 -0.181397 -0.305747 0.040828 0.267457 -0.092457 -0.161712 -0.155000 0.087084 0.014294 -0.151779 0.115582 0.117624 0.005573 0.108418 0.374615 -0.149888 -0.030842 0.012866 -0.381756 -0.076794 -0.244199 0.078382 0.063376 -0.419750 0.005672 0.032764 0.185177 0.421758 -0.151918 -0.032886 0.003154 -0.288174 -0.216215 -0.024697 0.112476 0.181408 -0.179827 -0.049701 -0.146125 -0.097501 0.268031 -0.063780 0.142886 0.318511 -0.042090 -0.146783 0.127056 0.067291 -0.216237 0.134892 0.115151 -0.222074
30 0.164146 0.121622 0.055765 0.222283 -0.035590 -0.379241 -0.337605 -0.280194 -0.109257 0.195064 0.290308 -0.113481 0.140081 0.284096 -0.140608 0.199562 0.027920 0.168983 0.307381 -0.120292 0.025909 0.120881 -0.113040 0.337760 -0.261501 -0.049056 -0.009073 0.240290 -0.230115 0.073676 0.061771 -0.013761 -0.143240 0.036387 -0.088256 -0.376879 0.449498 0.011339 -0.406336 0.403965 0.080021 0.003738 0.049122 -0.164513 -0.034683 -0.029139 -0.061991 0.193882 0.100626 -0.042718 0.158709 0.050194 0.067440 -0.274400 -0.186427 0.060257 -0.109614 -0.153239 0.190878 0.074718 0.105674 0.081106 0.233275 0.022187 -0.202415 0.233259 0.156448 -0.020056 0.131327 -0.014758 -0.073997 0.246476 -0.321882 -0.343385 -0.265429 -0.071800 0.201842 -0.013181 -0.028167 0.180071 0.298336 0.087509 0.097691 -0.039933 0.230449 0.145377 0.139124 0.078523 -0.099493 0.161562 -0.012970 -0.159489 0.120362 -0.062686 -0.181024 0.038453 -0.150384 0.290351 0.215480 -0.007154 0.035357 0.009854 -0.007622 -0.180925 0.138035 -0.179604 0.008840 0.091765 -0.094412 0.072182 -0.023384 -0.011136 0.310915 -0.056427 -0.325090 0.184090 0.166908 0.057587 0.148431 0.204850 0.183913 0.069267 -0.144210 0.045300 0.090485 -0.118104 0.132330 0.050820
28 0.095049 -0.058718 0.081325 -0.074488 0.144806 0.113073 -0.160113 -0.233470 0.070484 0.001310 0.173848 -0.072582 -0.124787 0.056418 -0.106121 0.154976 -0.288541 -0.068076 -0.065478 -0.011922 0.046777 0.034307 0.028313 0.130614 0.147666 -0.029042 0.035382 0.124529 -0.167734 -0.145332 0.148159 -0.065760 0.179616 0.030178 -0.007815 0.119744 0.031729 -0.044378 -0.085796 0.022227 0.152310 -0.136115 -0.108969 -0.207297 0.003515 -0.147967 0.062692 0.147559 0.171620 -0.087648 0.017463 -0.064091 -0.030858 0.087551 0.139475 -0.023772 -0.066025 0.039694 -0.074016 -0.160655 0.028510 0.073528 -0.179230 -0.086215 -0.190654 0.201021 0.059763 0.057032 -0.048054 0.110963 -0.120542 0.154591 -0.202116 0.016930 0.072518 -0.040366 0.166536 -0.105683 -0.067869 0.011232 0.154374 0.343673 0.144961 0.012405 0.132416 0.217584 0.042418 0.112546 0.197459 0.013994 -0.004437 0.118660 -0.256148 -0.215376 -0.039977 0.030508 -0.019454 -0.116689 0.185139 0.075356 -0.062338 -0.031391 -0.032220 0.035917 0.186792 -0.053694 -0.003936 0.103826 0.061109 0.146900 0.136248 -0.071458 0.190426 0.021593 -0.059983 0.078023 -0.142866 -0.121239 0.007361 0.000107 0.052113 0.073003 0.038490 0.028247 0.146272 -0.003473 -0.046478 0.167580
8 0.059664 -0.152046 0.097116 -0.014407 0.020171 0.215878 0.005492 0.016129 0.083396 0.221635 -0.046952 0.076221 -0.131253 0.091082 -0.072599 0.166972 0.031569 0.099222 0.173103 0.038146 -0.071037 -0.076289 0.157884 -0.031541 0.266965 0.019407 0.187863 0.005113 -0.146037 -0.101054 0.137222 0.127182 -0.068971 0.105765 0.053656 0.355338 -0.210693 0.201529 0.124881 -0.060408 0.078886 -0.064000 0.079249 -0.298384 0.052302 -0.188153 -0.084359 0.112437 -0.045390 -0.136953 -0.027127 0.018310 0.055385 -0.013711 0.309263 0.105532 0.088246 0.089438 -0.150118 0.058323 -0.089589 -0.060651 -0.083774 0.110886 -0.259276 -0.092721 0.012155 0.167078 -0.201074 0.094126 -0.187491 0.112276 -0.132165 -0.084079 0.240699 0.045404 -0.033606 -0.245369 0.209943 -0.008446 -0.191932 -0.002003 -0.109604 0.132661 0.230061 0.020340 0.159767 0.024246 0.196287 0.190765 0.003981 0.170801 -0.371901 -0.205900 -0.085681 0.050480 -0.216669 -0.137233 0.128884 0.193560 -0.331955 0.120494 -0.030065 0.324609 -0.113396 -0.081856 -0.009819 -0.136548 -0.329462 -0.116667 0.410916 -0.041363 0.043863 0.031530 0.091558 -0.025770 -0.060299 -0.152843 -0.021861 -0.163948 0.127622 0.036001 0.096390 -0.091599 -0.083273 0.264592 0.173053 -0.037080
11 0.062902 0.159225 0.164331 -0.270347 -0.129651 -0.110547 0.211431 0.045594 -0.103546 0.209877 0.064589 0.264622 -0.185031 0.008354 0.166712 -0.092850 0.352072 0.032436 0.103771 0.151108 0.119433 -0.354615 -0.063651 -0.188096 0.074921 0.084957 -0.033730 -0.097503 0.028835 0.321551 -0.298754 -0.167154 -0.012357 0.046857 -0.314555 0.054965 -0.003837 0.119907 0.087310 0.100556 -0.017332 0.341599 0.302521 0.020415 -0.175129 0.120391 0.057422 -0.125611 -0.188115 0.002493 -0.481490 -0.015455 -0.176953 -0.022281 -0.183875 -0.082385 -0.077593 -0.056061 0.137849 0.120474 -0.116299 -0.000169 0.288762 -0.001049 0.088315 -0.137030 0.046852 0.048846 -0.050043 -0.016927 0.016859 -0.057913 0.321387 0.041827 -0.063974 -0.013554 -0.098950 -0.292146 0.089301 0.232967 -0.036682 -0.049291 -0.220081 0.082627 0.010998 -0.210881 0.136100 0.183375 0.072517 0.126417 0.374668 -0.121407 -0.068840 -0.010726 -0.386701 -0.054227 -0.209475 0.019927 0.130813 -0.331746 -0.014645 0.050130 0.244282 0.400350 -0.069993 0.017864 -0.106070 -0.183500 -0.221260 -0.027464 0.112680 0.132041 -0.111056 0.029616 -0.086829 -0.162833 0.290352 -0.045943 0.090927 0.207617 -0.107968 -0.126892 0.130742 0.023454 -0.149482 0.188443 0.167150 -0.165532
5 0.025840 0.188019 0.030057 -0.042733 -0.180499 -0.169788 0.052212 0.089440 -0.145637 0.272575 -0.011400 0.131308 -0.137400 -0.081621 0.286995 -0.097710 0.172244 -0.014860 0.094509 -0.164739 0.004213 -0.129834 -0.201587 -0.067104 0.018561 0.166394 0.026115 0.047507 -0.107485 0.229498 -0.286682 -0.092967 -0.045504 0.113289 -0.306675 0.137897 -0.095682 0.223447 0.058610 0.326142 -0.243327 0.310446 0.168573 -0.004291 -0.162998 0.116512 -0.077410 -0.296157 -0.006743 -0.060973 -0.467298 0.079865 -0.025530 0.054287 -0.012074 0.009964 0.183343 -0.141582 0.091635 0.322625 0.027132 -0.103448 0.224044 -0.141850 0.216811 -0.148099 0.009160 0.217489 0.110920 -0.016321 0.047121 -0.138980 0.339963 -0.155298 -0.146191 0.083174 0.001806 -0.267360 0.332766 0.265742 -0.076745 -0.311357 0.003173 0.286766 -0.101879 -0.156750 0.129213 0.256274 -0.097342 0.233159 0.168639 -0.083656 -0.046502 0.002995 -0.208869 -0.053704 -0.333644 0.090085 -0.076247 -0.245219 -0.014415 -0.050719 0.069839 0.128925 -0.204338 0.083430 -0.040291 -0.189721 -0.293550 -0.082241 0.260495 0.168660 -0.087476 -0.136682 -0.036734 0.053885 0.367038 0.118675 0.132750 0.301976 -0.007529 0.020077 0.063857 0.006949 -0.138377 0.371493 0.229563 -0.279848
29 0.148708 -0.105293 -0.031692 -0.009117 0.112940 -0.014667 -0.298646 -0.135889 -0.007801 -0.130663 0.174089 -0.231814 -0.081472 0.150337 -0.004577 0.117748 -0.266726 -0.178908 -0.090591 -0.128420 -0.056594 -0.137158 -0.057447 0.285406 -0.086858 0.022259 0.106752 0.264540 -0.113836 -0.286561 0.154620 -0.032423 0.082114 -0.061371 0.160329 0.134336 -0.094201 -0.027850 0.119577 -0.122235 -0.006872 0.026591 0.024843 -0.169820 -0.144530 -0.204735 0.076570 0.078696 0.187406 -0.076211 0.008556 -0.070297 -0.116450 0.077349 0.040300 0.017981 -0.109562 0.131792 0.014494 -0.120868 0.008273 -0.060473 -0.118230 -0.064722 0.105931 0.275114 0.208950 0.143120 -0.086674 0.014190 -0.166011 0.214093 0.042837 -0.113085 0.005664 0.126508 0.094270 -0.108432 -0.134085 0.044381 0.063353 0.347758 -0.044890 -0.050376 0.227122 0.270411 -0.068075 -0.051261 -0.047918 -0.031263 0.059208 -0.004534 -0.149204 -0.173823 -0.141051 0.169941 -0.047629 0.039672 0.051850 0.098531 -0.038065 -0.107500 -0.149260 0.207793 0.168277 -0.348646 0.231305 -0.037676 -0.028638 0.179896 0.050515 -0.010076 0.057910 0.030419 -0.084216 0.001725 -0.152257 0.064531 0.028185 -0.032442 0.061100 -0.061679 0.021701 0.092836 0.121580 -0.018377 -0.147830 0.184131
31 -0.044906 -0.082314 -0.006988 -0.033070 0.003938 -0.033083 -0.202898 -0.034402 0.101637 0.125471 -0.123299 -0.243116 0.156023 0.121045 -0.089960 0.121324 0.353185 0.295171 0.314948 -0.047050 -0.144359 -0.054472 0.030711 0.204133 -0.123032 -0.131346 0.280150 0.063969 0.202328 -0.080380 0.175046 0.074157 -0.209084 -0.163382 0.053549 -0.005986 -0.002847 0.024527 0.235661 -0.213788 -0.032168 -0.025213 0.070162 -0.050020 -0.005744 -0.252968 -0.036216 0.040638 0.036995 -0.042449 0.278129 0.068077 -0.018263 -0.115030 -0.158654 -0.083595 -0.049545 -0.010005 -0.181371 -0.088135 0.075040 -0.105511 -0.063537 0.174113 0.070961 0.044639 0.054499 -0.093019 -0.105216 0.031463 -0.094751 0.104992 -0.221880 -0.309076 0.096605 0.154610 0.205231 0.046321 0.023803 -0.205027 -0.077035 -0.019626 -0.123387 -0.213220 0.148442 0.099484 0.237654 -0.078846 -0.025211 0.027701 -0.047929 -0.077739 0.183100 0.161705 0.138658 0.238845 -0.015031 0.039501 -0.085815 0.226432 0.061580 -0.058949 -0.171353 -0.008834 0.037584 -0.151602 0.160310 -0.052141 -0.126614 -0.115086 -0.184908 -0.140104 0.026860 -0.051711 0.048134 0.131508 0.012886 0.193398 0.086084 -0.010406 -0.083922 -0.124339 -0.049533 0.012690 -0.012920 -0.004971 -0.069528 0.010594
20 -0.066371 -0.286518 0.012641 -0.157045 0.083288 0.298519 -0.012191 0.001274 -0.054548 0.256315 -0.061640 0.080038 -0.195925 0.020198 0.174339 0.169466 0.188690 0.194404 0.178842 -0.229521 -0.030419 0.088164 0.219251 0.004747 -0.045259 -0.051769 0.183402 0.048795 0.125946 -0.033323 0.073084 0.068475 -0.201697 -0.116032 0.115495 0.178471 -0.100158 0.094455 0.262881 -0.107608 -0.103761 0.094288 -0.017174 -0.143834 0.082163 -0.199290 0.044329 -0.227828 0.080660 -0.200571 0.278332 0.067049 0.136539 0.089047 0.064021 -0.053648 0.020928 -0.039378 -0.117859 0.019957 0.188871 -0.075159 0.006102 0.101523 0.012160 0.054250 -0.033007 0.185969 -0.019651 0.109517 -0.105730 -0.013193 -0.169608 -0.294058 0.171111 0.145493 0.114710 -0.050394 -0.001843 -0.128390 -0.048183 -0.046293 -0.147782 -0.151035 0.083991 0.064808 0.021218 -0.099841 0.093050 0.176063 -0.079194 -0.041197 -0.009265 0.107509 0.195938 0.160676 -0.172861 0.126718 -0.030425 0.251128 -0.039768 -0.017401 -0.239356 -0.085844 0.007118 -0.189910 0.063696 -0.144868 -0.076998 -0.000244 -0.178772 -0.006420 0.068863 -0.056562 0.040284 0.176426 0.032201 0.186399 0.210332 -0.074090 -0.019395 -0.123176 0.089469 -0.103270 0.057958 0.076525 -0.017705 -0.042126
25 0.077768 -0.035322 -0.160529 0.259387 0.159362 -0.038196 0.095478 -0.232744 0.128623 -0.170292 0.389401 0.171535 -0.083524 0.112464 -0.148489 -0.124356 -0.424354 -0.348564 -0.050018 0.136738 0.013066 -0.282844 -0.196190 0.260047 0.182386 0.000435 -0.103742 0.088846 -0.402534 -0.018861 0.027887 0.348055 0.208529 0.109091 0.117124 0.013169 -0.049658 -0.307657 -0.416005 -0.019104 0.286832 -0.011266 -0.022380 0.080719 -0.150320 0.107910 -0.028664 0.205838 0.023887 0.025304 -0.064175 -0.160568 -0.041006 -0.168140 0.348303 -0.042762 -0.160315 0.210544 0.009115 -0.021605 -0.127097 -0.000009 -0.241736 -0.209012 -0.089931 0.252574 0.117031 0.187047 -0.104412 -0.078299 -0.221937 0.108991 0.155732 0.263681 0.016669 -0.074076 -0.065918 0.025350 -0.017174 0.024456 0.219337 0.540220 -0.218713 0.207708 -0.009632 0.035936 -0.355027 -0.014571 -0.286802 0.191925 0.084509 -0.074559 -0.233916 -0.409353 -0.192178 0.107216 -0.149290 0.116539 0.095639 0.122171 -0.002975 0.035634 0.075044 0.118782 0.116204 -0.371064 -0.016492 -0.002125 -0.075796 0.177099 -0.023790 0.107587 0.054237 0.102604 0.014639 -0.307614 -0.086183 0.211898 -0.104309 -0.205358 0.105404 0.025034 0.063756 0.078623 0.219642 0.073439 0.194564 0.122227
26 0.175949 -0.117956 0.028065 0.200821 0.271303 0.157614 -0.019249 -0.322185 0.140829 -0.023545 0.421813 -0.014093 -0.089151 0.001935 -0.060882 0.091731 -0.270999 -0.106453 0.130027 0.226012 -0.031490 -0.247878 0.018009 0.282836 0.198097 -0.116649 0.027960 0.195464 -0.279444 -0.077123 0.156151 0.205715 0.171338 0.099172 -0.119070 -0.060689 0.217375 -0.404945 -0.407614 0.012215 0.255345 -0.129083 0.035833 -0.004076 0.025801 0.082035 -0.092045 0.376838 0.032845 0.128270 0.105626 -0.150763 -0.021285 -0.130773 0.220500 0.077948 -0.266834 0.308215 -0.005985 -0.238742 0.044234 0.012902 -0.377134 -0.078701 -0.127088 0.468999 0.056204 0.012562 -0.159357 -0.024475 -0.289781 0.263590 -0.101173 0.180970 -0.086518 -0.022116 -0.010877 0.128990 -0.236772 -0.158591 0.279444 0.681314 0.009427 0.045602 0.236894 0.280162 -0.151576 -0.030101 -0.181657 0.066801 0.095629 -0.134540 -0.131095 -0.491057 -0.027833 0.126024 -0.113733 -0.014199 0.281896 0.010567 0.109209 0.023636 0.053854 0.027682 0.151395 -0.349144 0.077700 0.025604 0.108557 0.112035 0.057985 -0.033967 0.145252 -0.044075 -0.045109 -0.212211 -0.287764 0.056281 -0.097983 0.112806 0.207083 0.132854 0.070206 0.192234 0.208935 -0.188052 0.074850 0.134460
15 0.058225 0.193314 -0.105478 0.161047 -0.084269 -0.442980 -0.471239 -0.104266 -0.014907 -0.091241 0.112089 -0.437844 0.281562 0.280380 -0.169267 0.022050 0.071931 0.079866 0.174932 -0.111357 -0.090232 -0.051534 -0.295297 0.383431 -0.390312 0.008800 0.105255 0.222024 0.039468 -0.172501 0.076487 -0.037591 -0.120302 -0.090302 0.160672 -0.366331 0.161240 -0.001501 -0.001976 0.018821 -0.087918 -0.049824 0.064080 -0.111654 -0.232800 -0.147883 -0.023992 0.141378 0.164708 0.039649 0.174967 0.013231 -0.126179 -0.162306 -0.393367 -0.006862 -0.121134 -0.149144 0.072295 -0.099461 0.047710 -0.071365 0.153626 0.071986 0.145709 0.082757 0.230382 -0.211983 0.044095 -0.065144 -0.051897 0.218937 -0.096074 -0.361150 -0.175006 0.068744 0.273640 0.014908 -0.013543 0.090819 0.043162 -0.017680 -0.046174 -0.159995 0.204944 0.136668 0.185265 -0.024666 -0.199324 -0.106582 -0.015848 -0.125481 0.258483 0.156532 -0.150205 0.168236 0.044176 0.222797 -0.052654 0.067531 0.088294 -0.189173 -0.113808 0.028713 0.161403 -0.251313 0.285136 0.048979 -0.038204 0.016195 -0.171856 -0.057523 0.061874 -0.014727 -0.164665 0.097125 0.128351 0.181504 0.084028 0.037625 -0.010819 -0.152804 -0.085062 0.071350 0.061510 -0.143260 -0.137103 0.106225
17 0.049370 0.033937 0.174100 -0.288785 -0.212967 -0.114113 0.176307 0.220492 -0.295853 0.149673 -0.128013 0.129437 -0.263566 -0.276012 0.521385 -0.055158 0.188325 -0.078297 -0.219358 -0.139482 0.177304 -0.113966 -0.010863 -0.249351 -0.104935 0.184064 -0.076863 0.005309 0.064673 0.154636 -0.352928 -0.364973 -0.061833 0.067850 -0.399931 0.211079 -0.121011 0.298265 0.314693 0.309489 -0.456759 0.527167 0.282869 0.103523 -0.090508 0.200692 0.042190 -0.400788 -0.138350 -0.040795 -0.682389 0.041091 -0.050668 0.256327 -0.129282 0.066728 0.106699 0.021834 0.208740 0.281249 0.010991 -0.076014 0.339138 -0.118586 0.348598 -0.055425 0.054880 0.318739 0.098302 -0.024809 0.167512 -0.262958 0.553457 0.035191 -0.204655 0.236003 -0.268662 -0.340740 0.069419 0.386413 -0.151576 -0.289411 0.048776 0.204854 -0.101757 -0.217042 0.073236 0.143610 -0.011513 0.057811 0.345784 -0.080596 -0.001414 0.084213 -0.214461 -0.202307 -0.333248 -0.090854 0.091717 -0.522328 0.053246 0.020040 0.158457 0.195948 -0.167647 0.165572 -0.040925 -0.229873 -0.181648 -0.024673 0.323503 0.209884 -0.145157 -0.021399 -0.072720 0.005872 0.211502 -0.047255 0.080190 0.499198 -0.100960 0.062514 -0.011327 0.117681 -0.248471 0.283641 -0.015936 -0.251172
10 0.102207 -0.121274 0.112547 -0.086801 0.105035 0.006606 -0.351990 0.007485 -0.013713 -0.082123 -0.051132 -0.355377 -0.055996 0.085884 -0.180131 0.196634 -0.343615 -0.063665 -0.232885 -0.218238 0.010352 0.261016 0.040287 0.138511 -0.145461 0.058498 -0.001894 0.175963 -0.037344 -0.338984 0.138160 -0.206175 0.012432 -0.007199 0.303906 0.061670 0.026526 0.206895 0.165384 -0.043162 -0.104116 -0.245787 -0.075817 -0.343997 0.002076 -0.249843 0.170264 0.138264 0.269775 -0.136252 0.145296 -0.094572 -0.024966 0.170964 -0.071273 0.089964 -0.035256 -0.112400 0.046225 -0.185883 0.037503 0.044513 0.058015 0.051737 -0.095777 0.114914 0.202004 -0.092165 0.059504 0.022621 0.027400 0.220500 -0.249685 -0.228311 0.001836 0.069757 0.196142 -0.096088 -0.127077 0.236702 0.048168 0.091638 0.247533 -0.184310 0.236440 0.233289 0.123132 -0.064627 0.232670 -0.220092 -0.107349 0.196110 -0.144627 0.018300 -0.067442 0.033932 0.099962 0.009426 0.091678 0.136957 -0.103057 -0.119319 -0.195231 0.017513 0.250919 -0.100026 0.281717 0.078701 0.056774 0.094904 0.212192 -0.043256 0.143574 0.081472 -0.134809 0.195270 -0.170094 -0.244621 -0.093093 -0.039025 0.113781 -0.002765 -0.080115 0.043968 0.043891 -0.166978 -0.320499 0.183938
22 0.043242 -0.229625 0.071471 -0.177634 0.077415 0.342068 0.179400 -0.005859 0.020732 0.425358 -0.100724 0.250895 -0.292312 0.130558 0.128665 0.214974 0.347436 0.200492 0.354605 -0.090862 -0.067986 -0.124290 0.263073 -0.296902 0.243935 -0.064515 0.262483 -0.074910 -0.011621 0.114366 -0.049750 0.177772 -0.115126 0.029990 -0.022056 0.289857 -0.150589 0.144147 0.258755 -0.031596 -0.018761 0.032579 0.067561 -0.237556 0.115227 -0.090800 -0.101729 -0.127914 -0.024383 -0.149514 0.126153 0.079319 0.148393 -0.000679 0.158853 0.030097 0.100609 -0.049213 -0.109290 0.073827 0.042232 -0.054162 0.018221 0.104802 -0.166778 -0.148452 -0.133498 0.074918 -0.136520 0.103817 -0.205427 -0.047434 -0.229148 -0.165330 0.244917 0.019230 0.141351 -0.167436 0.150765 -0.107607 -0.124359 -0.029547 -0.304038 0.084168 0.119671 -0.036373 0.070167 -0.035429 0.120376 0.222598 -0.068719 0.034268 -0.205020 -0.010320 0.040952 0.149123 -0.270825 0.059458 0.011444 0.277918 -0.178310 -0.013003 -0.027001 0.040219 -0.175574 -0.050835 -0.002157 -0.300994 -0.168186 -0.172762 -0.056121 -0.006549 0.064732 -0.141821 0.048468 0.029707 0.158880 0.042901 0.241555 -0.116371 0.038047 -0.106475 0.238315 -0.167363 0.059007 0.198515 0.254839 -0.124069
19 0.054987 0.188981 -0.119077 0.153258 -0.025198 -0.383273 -0.469845 -0.117554 0.030272 -0.092638 0.113356 -0.456379 0.266090 0.272682 -0.182126 0.030149 0.071616 0.068372 0.200027 -0.078959 -0.132747 -0.105987 -0.285547 0.314431 -0.301050 -0.028225 0.177251 0.190520 0.057085 -0.190237 0.082527 -0.003827 -0.060211 -0.063709 0.110801 -0.320181 0.153543 -0.082515 0.027597 -0.020845 -0.049554 -0.101383 0.034210 -0.100468 -0.203557 -0.130955 -0.043789 0.172165 0.181481 0.083652 0.167328 -0.015666 -0.162613 -0.136386 -0.372183 -0.028210 -0.138465 -0.107872 0.034634 -0.179693 0.056259 -0.064275 0.031057 0.029878 0.185720 0.096092 0.150269 -0.274618 -0.003684 -0.068614 -0.075556 0.195459 -0.108933 -0.297218 -0.158444 0.039567 0.318090 0.051697 -0.055796 -0.010760 0.044190 0.055037 -0.045142 -0.136918 0.186309 0.181278 0.149443 -0.022157 -0.201761 -0.142820 -0.019921 -0.130284 0.217663 0.102869 -0.118165 0.186208 0.070084 0.174661 -0.076629 0.058704 0.130397 -0.222035 -0.063579 0.023425 0.155293 -0.211664 0.295323 0.028200 0.065171 0.012380 -0.214273 -0.098623 0.028152 -0.066055 -0.138830 0.071337 0.106971 0.164233 0.103787 0.058397 -0.031158 -0.142270 -0.036897 0.104409 0.111740 -0.171573 -0.113880 0.128421
21 0.058278 0.258365 -0.156498 0.248540 -0.043405 -0.413842 -0.423757 -0.103368 -0.021434 -0.171230 0.183122 -0.416974 0.294898 0.232468 -0.101927 -0.072450 0.018755 -0.048023 0.164415 -0.058261 -0.179113 -0.144550 -0.330004 0.356904 -0.359503 -0.014871 0.086516 0.247230 0.042092 -0.131893 0.090876 0.012867 -0.072046 -0.084805 0.091729 -0.352861 0.147622 -0.093943 -0.018243 -0.013054 -0.037454 0.005681 0.063355 -0.028391 -0.222415 -0.074502 -0.047847 0.116100 0.146535 0.120447 0.109448 0.005858 -0.197505 -0.159514 -0.400440 -0.027198 -0.146444 -0.107785 0.149094 -0.085031 0.041628 -0.089411 0.093283 0.013630 0.302304 0.091633 0.164405 -0.224127 0.023359 -0.131183 -0.033387 0.235593 0.035672 -0.296727 -0.220113 0.003589 0.213974 0.097502 -0.080392 -0.026342 0.081911 0.035855 -0.028389 -0.115353 0.148228 0.204753 0.061682 -0.023792 -0.296201 -0.112053 0.025172 -0.208796 0.260696 0.050862 -0.201658 0.164730 0.142803 0.271583 -0.153024 -0.025013 0.143449 -0.194496 -0.066557 0.106789 0.101014 -0.285653 0.295857 0.034617 0.059175 0.069390 -0.249253 -0.046627 -0.049059 -0.087729 -0.187831 0.018646 0.086011 0.176832 0.092706 0.056562 0.026393 -0.163160 -0.046577 0.117370 0.074184 -0.223923 -0.076591 0.115350
23 0.054776 0.190229 -0.033186 0.141138 -0.104813 -0.390506 -0.384552 0.006639 -0.024932 -0.090518 0.029535 -0.361632 0.311279 0.199897 -0.186466 -0.001473 0.054600 0.050254 0.116626 -0.105626 -0.134985 0.030283 -0.225127 0.326729 -0.341049 -0.004016 0.039982 0.189965 0.052709 -0.096666 0.113580 -0.082158 -0.137224 -0.112003 0.159948 -0.263959 0.141385 0.074331 0.023411 -0.022756 -0.066484 -0.078084 0.066127 -0.096117 -0.160097 -0.174727 0.003234 0.134045 0.118273 0.029678 0.134811 0.036441 -0.125926 -0.174046 -0.339500 0.022265 -0.030745 -0.157632 0.078212 -0.003749 0.009837 -0.035153 0.151422 0.086671 0.144385 0.027945 0.198341 -0.191544 0.055628 -0.085417 0.032122 0.231284 -0.051032 -0.339314 -0.168428 0.030860 0.175883 0.047270 0.017620 0.081415 0.032925 -0.109968 0.054926 -0.141757 0.159833 0.136997 0.183471 -0.012527 -0.143090 -0.110732 -0.027934 -0.110555 0.226517 0.140601 -0.147869 0.139427 0.149428 0.190118 -0.131020 0.062133 0.058240 -0.129462 -0.130371 0.035021 0.072185 -0.141504 0.248668 0.082309 -0.072978 -0.004494 -0.061580 -0.078812 0.018131 -0.039956 -0.149988 0.130834 0.074879 0.053328 -0.020136 0.052598 0.047851 -0.066197 -0.156534 0.054301 -0.032033 -0.126181 -0.107743 0.073125
13 0.038515 -0.080845 -0.021078 -0.018768 -0.150821 0.067765 0.223933 0.166700 0.068377 0.086228 -0.084513 0.267269 -0.074747 0.182296 -0.098245 0.003358 0.145541 -0.021327 0.082050 0.150338 -0.041843 -0.268150 0.087696 -0.178471 0.240273 0.082258 0.042552 -0.157397 -0.118492 0.004558 -0.023330 0.158804 -0.025452 0.059298 0.256622 0.253397 -0.372368 0.164339 0.139179 -0.209070 0.076754 -0.012721 0.152107 -0.151309 -0.128996 -0.081971 -0.100590 0.084594 -0.201787 -0.089327 -0.139679 0.036777 0.019345 -0.111233 0.264724 0.133254 0.166108 0.118430 -0.102710 0.162282 -0.271645 -0.085017 0.042225 0.160615 -0.230556 -0.306391 0.051789 0.141654 -0.244778 0.054494 -0.171538 0.008979 0.185902 0.123880 0.291552 -0.004936 -0.191059 -0.291546 0.320187 0.087210 -0.336870 -0.117917 -0.426780 0.229016 0.133635 -0.215958 0.020943 -0.040193 0.035810 0.135163 0.058717 0.143923 -0.346544 -0.087303 -0.227474 0.054985 -0.170403 -0.101232 -0.007818 0.214270 -0.392936 0.111656 0.047112 0.462846 -0.226023 -0.081097 -0.028705 -0.198343 -0.419302 -0.188474 0.328371 0.029942 -0.105027 0.118009 0.180785 -0.266600 0.049675 -0.069263 -0.102271 -0.371342 0.070869 -0.089755 0.170717 -0.175919 -0.116267 0.371857 0.190863 -0.086807
27 0.062982 0.120236 -0.109727 0.223117 -0.105711 -0.364380 -0.258819 -0.073758 -0.224927 -0.183008 0.178165 -0.013661 0.163157 0.284223 -0.101369 0.034947 -0.252299 -0.109581 -0.130873 -0.215645 0.073877 0.344492 -0.132233 0.191177 -0.432019 0.060530 -0.248990 0.142827 -0.152722 -0.026304 0.029716 -0.067601 -0.047498 -0.052392 0.332392 -0.456603 0.266322 0.054503 -0.326066 0.220512 0.018987 -0.048694 -0.133450 -0.079535 -0.070620 0.020303 0.067382 0.039161 0.105225 -0.050065 0.249305 0.034492 0.081329 -0.192662 -0.167963 0.068391 0.003581 -0.270262 0.298953 0.122373 0.003728 0.115612 0.390596 0.018373 -0.177185 0.035265 0.163080 -0.009318 0.279607 -0.031076 0.060451 0.150097 -0.169356 -0.230363 -0.218799 -0.165017 0.069339 0.074761 -0.080497 0.267921 0.220779 -0.076183 0.072306 -0.120604 0.071126 0.061049 -0.107508 -0.080100 -0.111511 -0.032185 -0.154502 -0.019850 0.147781 0.116628 -0.190324 -0.041550 0.110567 0.348715 0.003880 0.097975 -0.080961 -0.027782 -0.092984 -0.230984 0.125669 -0.141643 0.018899 0.176271 0.037559 0.168187 -0.166304 0.065502 0.223624 0.096351 -0.249166 0.139010 0.079081 0.012019 0.074963 -0.187410 0.135124 -0.041426 -0.126848 -0.117269 0.125535 -0.191562 -0.014521 0.124681
18 -0.055071 -0.188227 0.051551 -0.179434 0.090790 0.427783 0.209124 0.027194 0.020072 0.344287 -0.111674 0.274769 -0.253676 0.046490 0.114744 0.131143 0.300885 0.194443 0.280086 -0.030640 -0.071959 -0.050129 0.271091 -0.318601 0.252072 -0.060846 0.203830 -0.121130 0.087696 0.137167 -0.002138 0.154399 -0.122951 0.011545 -0.040885 0.298018 -0.162014 0.127877 0.266521 -0.096751 0.030068 0.033826 0.013930 -0.174171 0.170113 -0.092468 -0.042083 -0.182933 -0.044966 -0.140861 0.128533 0.096419 0.125683 0.062992 0.132293 -0.042627 0.082280 -0.072501 -0.118041 0.060937 0.075554 -0.022194 0.002584 0.110508 -0.106544 -0.206680 -0.223699 0.054515 -0.118311 0.111876 -0.100059 -0.078032 -0.185683 -0.121717 0.262411 -0.033136 0.070424 -0.102585 0.108667 -0.212403 -0.125162 -0.120368 -0.206459 0.028413 0.033442 -0.042092 0.046347 -0.008557 0.197738 0.202669 -0.053984 0.033533 -0.165557 0.020629 0.099862 0.075195 -0.140579 0.033254 -0.035644 0.202409 -0.155056 0.043064 -0.023011 0.060111 -0.158998 0.019394 -0.080859 -0.207896 -0.062197 -0.109098 -0.101121 -0.010969 -0.017179 -0.114090 0.067739 0.035114 0.108870 -0.001993 0.224332 -0.155413 -0.009569 -0.112977 0.221718 -0.184291 0.010787 0.137889 0.222366 -0.106875
16 0.023826 0.289155 -0.110054 0.156928 -0.052026 -0.373916 -0.378368 -0.062951 0.013936 -0.093497 0.113209 -0.353900 0.275744 0.241431 -0.183147 -0.089151 0.067547 0.006063 0.189271 -0.051795 -0.159351 -0.101601 -0.338529 0.304271 -0.272855 0.011898 0.079413 0.169902 0.058246 -0.053199 0.050499 0.004318 -0.076059 -0.077122 0.114866 -0.303296 0.127858 0.001702 -0.004649 -0.041694 0.007686 -0.049725 0.053641 -0.096409 -0.219760 -0.125293 -0.001312 0.090352 0.150721 0.068806 0.109839 0.007881 -0.204826 -0.175464 -0.392301 -0.078045 -0.111901 -0.229784 0.094702 -0.063043 0.010102 -0.050513 0.136381 0.027777 0.218150 -0.029884 0.151868 -0.274631 0.045686 -0.112233 0.000038 0.225721 -0.038448 -0.339518 -0.159525 -0.044862 0.279351 0.063525 0.027681 0.016901 0.075772 -0.051446 -0.014005 -0.131477 0.114030 0.146382 0.153328 0.048649 -0.180836 -0.087058 -0.002530 -0.142015 0.222904 0.101814 -0.212097 0.166294 0.161426 0.266758 -0.177237 0.036253 0.098711 -0.192203 -0.063655 0.106459 0.100902 -0.202788 0.253905 0.058837 0.002382 0.042003 -0.223092 -0.055699 -0.035042 -0.072968 -0.173791 0.069455 0.174953 0.142788 0.079091 -0.010786 -0.017039 -0.187821 -0.042841 0.044242 0.045338 -0.162018 -0.019168 0.085278
12 -0.008264 0.092848 -0.047909 -0.049703 -0.068637 0.076865 0.157614 0.069481 -0.093645 0.196656 0.044153 0.274760 -0.229620 0.109795 0.149321 -0.083495 0.111170 -0.075827 0.111673 -0.048066 -0.016347 -0.149189 -0.048269 -0.264329 0.123656 0.131817 0.002158 -0.071167 -0.077036 0.172182 -0.204086 0.099983 -0.033188 0.102632 0.037431 0.118526 -0.203054 0.199752 0.121824 0.071031 -0.034542 0.156360 0.078656 -0.178851 -0.092072 0.060235 -0.042614 -0.224955 -0.035474 -0.087995 -0.167462 0.050650 -0.003815 0.010189 0.032375 0.003201 0.099197 -0.217412 0.106653 0.199046 -0.072555 -0.050897 0.255627 0.004767 -0.014399 -0.326712 -0.063157 0.077136 -0.009175 0.009050 -0.047778 -0.048706 0.128985 -0.108041 0.110099 -0.108696 0.021332 -0.237543 0.248729 0.126169 -0.119603 -0.219719 -0.249528 0.190660 -0.016483 -0.140573 -0.015230 0.092122 0.031356 0.196248 0.042853 0.035285 -0.213133 -0.018637 -0.260535 -0.018981 -0.163679 0.175859 -0.089316 0.036390 -0.220248 -0.013942 0.084727 0.276662 -0.175485 -0.047363 -0.044478 -0.208156 -0.169877 -0.034494 0.010287 0.134960 -0.101010 -0.047573 -0.031874 -0.089475 0.295801 0.010288 0.184012 -0.191703 0.019901 -0.189072 0.263824 -0.181673 -0.017254 0.215130 0.287426 -0.144809
